#ifndef MLP_H_
#define MLP_H_

#include <stdlib.h>
#include <stdio.h>
#include <stdint.h>
#include "ap_int.h"
#include "ap_fixed.h"
#include "hls_stream.h"
#include "hls_math.h"
#include "hls_stream.h"

typedef ap_fixed<16,2,AP_RND, AP_SAT> test_t;

typedef float interface_t;
typedef ap_fixed<16,2,AP_RND, AP_SAT> weight_t;
typedef test_t bias_t;
typedef test_t param_t;
typedef ap_fixed<32,4> accum_t;
typedef float output_t;
typedef float decimal_t;

typedef ap_uint<16> const_t;
typedef ap_uint<8> char_t;

#define LR  -0.05
#define MOM  0.9    // momentum

#define seed1 4042322160
#define seed2 252645135
#define PLOT_NUM 102
#define INPUT_SIZE 16
#define OUTPUT_SIZE 2
#define BATCH_SIZE 32
#define POOL_SIZE 10
const accum_t batch_size_div = (accum_t)((float)1.0/(float)BATCH_SIZE);
const output_t batch_size_div_2 = (output_t)((float)1.0/(float)BATCH_SIZE/(float)BATCH_SIZE/(float)2.0);

struct DataBus_IN {
    float data;
    ap_uint<1> last;
};

struct DataBus_OUT {
    float data;
    ap_uint<1> last;
};

void MLP(
        interface_t input[INPUT_SIZE],     // in
        interface_t label[OUTPUT_SIZE],    // in
        interface_t output[OUTPUT_SIZE],   // out
        float &loss                        // out
);

static param_t BRAM_IN[POOL_SIZE][BATCH_SIZE][INPUT_SIZE]   = {0};
static param_t BRAM_OUT[POOL_SIZE][BATCH_SIZE][OUTPUT_SIZE] = {0};
static param_t BRAM_IN_store[BATCH_SIZE][INPUT_SIZE]        = {0};
static param_t BRAM_OUT_store[BATCH_SIZE][OUTPUT_SIZE]      = {0};


static weight_t fc1_weight[16][32] = {{0.1288158,0.03623599,0.16501495,-0.0721893,-0.14013991,-0.1757808,0.08524391,0.23705366,0.14404273,0.077371955,-0.1868203,0.17051178,-0.117421895,0.04249862,0.1222195,-0.2053431,0.14418459,0.059464484,-0.047360033,-0.03314078,-0.04948628,-0.13982919,-0.08818966,0.07033306,-0.1615564,-0.12745678,-0.19877735,0.0051754415,-0.12370819,-0.028740704,0.1013352,0.17081118},
{-0.11034456,-0.0009987056,-0.22778443,-0.0274086,-0.041151494,-0.18862724,0.04478064,-0.16589525,0.23209372,-0.056608826,0.09618747,0.007960886,0.014159411,0.11784902,-0.17962226,-0.021899104,0.15368354,0.20735556,0.050463766,-0.09542039,-0.018928915,-0.14063838,-0.0944781,-0.05060011,0.16028798,0.17561382,0.21735924,0.07179594,-0.220974,0.114657015,-0.13565418,-0.1248427},
{-0.04846537,0.21854168,-0.2377021,-0.24034703,-0.004842967,0.015203595,-0.10634315,0.031257242,-0.1552597,0.09608519,0.08004239,-0.17294785,0.18097448,0.04009497,-0.057275176,0.10500637,-0.014488876,-0.10383737,0.00924778,-0.22846514,-0.04747671,0.06298402,0.15970346,-0.24141562,0.088787764,0.0016082823,-0.15212023,0.09018698,0.083758295,-0.17798665,0.039754182,-0.1689724},
{0.11734223,0.07779753,-0.12058303,-0.11919543,0.03651437,-0.042601794,-0.075678974,0.18656433,0.054252803,0.08079618,0.16192266,0.19537741,-0.17585593,0.076263726,0.18187296,-0.007240534,-0.030775636,-0.10554257,-0.15931678,0.21803173,-0.092160106,0.026156157,0.18021116,0.08766487,0.061867177,-0.20067933,-0.097762704,-0.20139107,0.13683987,-0.054651737,0.08280733,0.09370738},
{-0.23535922,-0.09310156,0.21952793,0.1356585,-0.18972957,0.146831,0.22897068,0.18110877,0.21571505,0.15263474,-0.12936804,-0.062515855,0.11740157,-0.22488117,0.19802222,-0.1267694,0.22718629,-0.21664286,0.14079535,0.047695577,0.104331136,-0.12761211,0.24085858,0.009587944,-0.049570113,-0.052386492,-0.20592141,0.12078005,0.24781495,0.0024508536,0.21572375,-0.19854105},
{0.14992931,-0.15099034,-0.04164225,-0.06076932,-0.1774056,-0.14478391,-0.04625532,0.15530962,0.16566339,0.16836092,0.05420375,-0.020211339,0.16061035,0.18213436,0.23643893,0.0057156086,0.2185322,-0.010259926,0.14010468,0.22355613,-0.08515072,-0.17621487,0.0729264,-0.080345154,-0.07801756,-0.22565302,0.2284945,0.025708228,-0.026128173,-0.14445668,-0.13115367,-0.20776579},
{-0.051431328,-0.041903913,0.10698986,0.24901238,0.13600114,-0.22224548,0.14094791,-0.18092972,0.15580577,-0.08466318,-0.09101266,-0.21537474,0.2445493,0.21796599,-0.050729364,-0.23498306,-0.14174455,-0.11843014,0.012589991,-0.040290266,-0.14044514,-0.20713204,0.120777786,0.10099286,0.04242462,-0.12952554,0.047604382,0.17242941,0.24049467,-0.06388053,-0.19669372,-0.22482958},
{0.12718597,-0.10783517,-0.11617786,0.2003971,-0.058622986,0.1819422,0.1082508,-0.18002605,0.17765814,0.2442564,-0.056168675,-0.04938215,-0.17498273,0.20665145,-0.1943152,-0.17669025,0.2445969,0.010017306,-0.14207223,-0.06282821,0.0567151,0.24501616,-0.020087063,0.052779883,0.19346225,-0.17710897,0.2105087,0.17667848,0.16060945,-0.107813716,0.23131457,-0.12123367},
{0.034754246,-0.08011213,0.2453045,-0.011705905,0.122118354,-0.037070453,-0.16160178,-0.1511929,0.1581291,-0.028901935,-0.1992296,-0.16124696,0.06054747,0.18480566,0.24615273,-0.16642234,0.06186813,-0.051249623,-0.10622665,-0.23502654,-0.1807015,-0.04261136,-0.1461589,-0.092200756,0.035801023,0.1709879,0.016325206,-0.19687867,-0.12399101,0.23825905,0.104941964,-0.04771945},
{-0.030611038,0.011970401,-0.10577461,-0.16687077,0.014252484,0.1406143,-0.21260738,0.031407088,0.06457409,-0.0085889995,-0.11394024,0.2297265,-0.18485671,-0.18040785,-0.05325654,0.20588258,-0.16606522,0.08294842,0.0034427643,-0.094902664,-0.053353697,-0.057808816,-0.24492043,0.22458705,-0.118211985,-0.052522033,0.13588592,0.24008003,-0.1928361,0.21238393,0.12151182,-0.14804834},
{0.06934023,0.14903194,0.1874812,0.15224054,0.082086205,0.08037114,0.23997217,0.24916622,-0.17095503,-0.23597002,-0.07656443,-0.21613026,0.21343756,-0.092675,-0.10285878,0.22037646,0.13685313,0.21626908,-0.1428343,0.163943,0.1277534,-0.091929495,0.15227357,0.12541988,0.24834704,-0.043194234,-0.07982138,-0.2458627,0.14021593,0.2156201,0.08999115,-0.10570654},
{0.012332946,0.13588417,0.0029604137,0.07758927,0.05497217,-0.18746883,0.013054192,-0.1579189,-0.20993963,-0.16090405,0.10690883,-0.19487068,-0.09697658,0.22043133,0.060943455,-0.08491668,-0.18664363,0.07376954,-0.13948956,-0.2448614,0.09343237,-0.12504146,-0.03633672,0.031390667,0.005346775,0.119803846,-0.1994439,0.14371645,-0.13696897,0.20433408,-0.08849019,-0.22137174},
{0.091307044,-0.24438772,-0.13170436,-0.16160494,0.090899855,0.050224572,0.17136452,0.13322023,-0.11455515,-0.14605087,0.045672357,-0.008489072,0.15058818,-0.19041464,-0.17483112,0.011212587,0.23098215,-0.080535054,-0.037291765,-0.087441355,0.21283454,-0.22862804,0.10271147,-0.048012853,0.19762939,0.101742655,0.040131897,0.017596036,0.114673704,-0.23942673,0.15038714,0.1536609},
{-0.09742525,0.15498012,0.12850371,0.16238615,0.12392768,0.060049146,0.05180785,-0.13837203,-0.029111475,-0.10693073,0.061754107,-0.13517886,0.007442862,0.2268053,0.16432005,0.11149448,-0.16071978,-0.12267405,-0.0719876,0.15231481,-0.17051175,-0.14676476,0.0123054385,-0.21175995,0.060929954,-0.16499197,-0.02229464,0.118302196,-0.21410924,0.083625585,-0.21825859,-0.05723247},
{-0.01822719,0.06984097,-0.13270503,0.15177545,-0.23152801,-0.16738966,0.08040568,-0.23505393,-0.15323806,0.17774239,0.24952629,0.08945292,-0.019470662,-0.19662401,0.15668318,0.029954344,0.07070699,-0.21803826,0.061370194,0.14408633,0.0021736324,0.15280712,-0.23333025,0.19301936,0.22408912,0.09213367,-0.025242269,-0.13519159,0.18239248,0.09214717,0.034791112,-0.15773636},
{-0.022506833,0.23713887,0.073526174,0.22172374,0.12583786,-0.11861807,0.18673965,-0.05313492,0.09146342,-0.08169526,0.24365687,-0.0962314,-0.007976949,-0.17610213,-0.19837031,-0.12518814,0.076125056,0.21036172,-0.06571138,0.09231132,-0.07382569,0.054793954,-0.122648716,-0.06451005,0.14424345,0.10620564,-0.12277871,0.1502991,0.074929446,-0.18336967,0.11300993,0.06508875}};


static weight_t fc2_weight[32][64] = {{-0.10205022,0.02017422,-0.1029945,-0.015106273,-0.16376933,-0.006085183,0.093705125,-0.02841764,0.040724117,0.013428006,-0.04010652,-0.083824836,0.06605389,-0.016478911,0.119608894,0.029305018,0.05080067,-0.09133658,0.12949672,-0.1150241,0.030097,0.161434,-0.14060038,0.0023102162,0.012624919,-0.09742513,0.13352904,-0.14700538,0.12136313,0.14215977,0.010373604,-0.031091625,0.13943034,-0.025835406,0.014115906,0.0017053246,-0.013787098,0.03263028,0.14730157,-0.088744216,0.009035231,0.0803466,-0.15238522,-0.061560865,-0.1553812,-0.131246,0.0002979993,-0.092235655,-0.14761528,0.12773186,-0.1536215,-0.023682777,0.14397612,0.055328,0.034411173,-0.017548745,0.07924925,0.16783166,-0.037674855,0.163865,0.15330242,0.1525785,-0.11305078,0.13308784},
{0.082552396,-0.03964579,0.07260623,-0.056432478,0.03277739,-0.063152544,-0.13301612,0.07069719,0.16317472,-0.17119083,0.091427214,0.14544892,0.1442981,-0.15852,-0.16542022,0.007201168,-0.10891755,0.14590724,0.14333083,-0.09615698,0.08870388,-0.06989804,-0.096462,-0.00024015275,0.091985434,-0.113695234,0.017492121,0.1214991,0.032088965,-0.045052093,-0.0071842675,0.03002061,-0.046925247,0.0020715597,0.016899684,0.026883345,-0.11669963,-0.14612292,-0.07321341,0.1606242,0.017240547,-0.03154702,-0.022307841,-0.15451612,0.02205671,-0.17673117,-0.122679025,0.11083414,0.09958645,-0.117135555,0.14154273,0.089744106,0.13343222,0.1667551,0.12722932,0.07987673,-0.05861109,-0.16656262,0.10457661,0.030197669,0.023762224,0.10464358,0.029845426,-0.08982067},
{-0.12611148,0.065226376,0.007525615,0.13130182,-0.011268065,0.10950975,0.059942555,-0.13565554,0.11101201,0.093623154,-0.05479891,-0.042816456,0.0036545952,-0.16642968,-0.12428549,0.026976217,-0.13742013,0.10165232,0.1361439,-0.0015287504,0.0627752,0.07871366,0.15821233,0.030241711,-0.006928225,-0.09220141,0.0038375547,0.06858211,0.10036302,0.11674196,-0.046558697,0.11047155,-0.16853844,-0.10521179,-0.17076017,-0.08542576,-0.17025222,-0.07531161,-0.11393917,0.0030063137,-0.13560116,0.11892074,0.01801782,0.04544794,-0.114390925,0.13812685,0.0448959,0.15673083,0.010192794,-0.0042512473,0.0050375597,-0.07517811,0.043146424,-0.009813071,0.10114732,0.12190013,0.025619846,-0.1490378,0.116438545,0.06165989,-0.035909366,-0.15800211,0.018126411,-0.01978963},
{0.16429077,-0.05879306,-0.037797946,0.14369416,0.063864045,0.16764551,-0.075439505,0.024395902,0.17590718,-0.053489957,-0.14790009,0.0063227224,-0.14665602,-0.16562822,0.17140432,-0.09893975,0.13481739,0.051738355,0.05580365,-0.093161836,0.08631577,-0.14339812,0.05151114,-0.010342815,0.002294664,-0.017525755,0.1170475,0.121598504,-0.15223622,-0.14289746,0.15345486,0.073694944,-0.10554938,0.13648655,0.037514802,-0.009044503,0.09832063,0.13425697,0.17112587,0.092802994,0.09434477,-0.010975165,-0.14212823,-0.0764152,-0.038768083,0.16571938,-0.16680348,0.17561477,0.130903,-0.14418755,0.16122112,0.13905425,0.004089698,-0.052798957,-0.07331465,0.0022980147,-0.026597232,0.004999122,0.11565662,-0.05808923,-0.07881448,-0.03600525,-0.088989235,-0.10214748},
{-0.07306788,0.12974595,-0.048067424,0.11261781,-0.08992276,0.13069059,-0.15537834,-0.16117178,-0.0796536,0.15787062,0.038825,-0.16485931,-0.0004010062,0.1697891,0.025762683,-0.17315073,0.06703656,-0.13462059,-0.050519317,0.16363314,0.11055891,-0.021805326,0.1217241,0.09173599,0.00062638643,0.011958894,0.10496715,-0.17583886,-0.17584899,0.007905337,0.11863777,0.072897755,0.0056679924,0.123462826,-0.0023587272,0.04554167,-0.1518003,-0.06494836,-0.09431533,0.041563176,0.16795668,-0.022952436,-0.064952046,-0.14017175,-0.051993616,0.17494981,0.038752656,0.001925816,-0.07451914,0.13448967,0.082476474,-0.120556735,0.1515722,-0.050856072,-0.043214533,-0.095531665,-0.11318106,0.16336845,0.11072807,-0.15250912,-0.024866914,0.01923169,-0.028651321,-0.12825473},
{0.10434693,0.040603388,0.049179554,0.0782381,-0.12619886,-0.13518211,-0.12343907,0.10967092,-0.022118729,-0.17081578,0.11007731,-0.007852379,0.12849015,0.13981801,-0.1514104,0.0038688488,0.08728579,-0.13019685,-0.037378184,-0.063816294,0.025066944,-0.11242918,-0.13552706,0.024277385,0.09382131,0.029944913,-0.01754253,-0.16827056,0.08517768,-0.13795152,0.049925197,0.04968068,-0.13155176,-0.09535387,0.13711967,0.14295882,-0.021401348,-0.05089352,-0.1408954,0.031114552,-0.122636095,0.09917634,0.10614627,-0.022186754,0.12792744,0.15781778,-0.068167366,-0.14972097,0.17076464,0.01021785,0.0755191,-0.09199144,0.10667831,-0.12311286,0.17623287,-0.13664775,0.07232743,0.011376361,-0.13676326,0.027674126,0.0934442,-0.08056536,-0.0044447645,-0.13821892},
{0.0060201082,-0.054347474,0.038971525,-0.1401421,0.12048808,-0.036716416,0.0749368,0.17171559,0.036464337,-0.04135986,-0.17236291,-0.0498687,-0.08502688,0.07012222,-0.05569356,-0.07211684,-0.17546073,0.14422314,-0.096674375,-0.09829317,0.1522645,-0.033661064,0.07978365,0.12676431,0.013831816,0.09033269,-0.04470967,-0.12546661,-0.072728224,-0.16588134,-0.06511081,-0.13589168,0.040377796,0.15573749,-0.16873261,-0.146662,0.15173966,0.07929186,-0.12830472,0.13008302,0.060131855,-0.16162695,0.008562912,-0.15054362,0.1364247,-0.01863683,-0.10579152,0.17239101,0.11783508,0.07961053,0.03825149,0.06122639,0.10466782,0.17666163,-0.02830439,-0.13386422,-0.116625704,0.049069405,-0.16959243,-0.104501694,-0.17045087,0.08260654,0.1264938,-0.1251339},
{-0.07774481,0.15754353,0.11939652,0.16701236,-0.08506507,-0.03390792,0.06618142,-0.06309554,0.14212362,0.1370943,0.018401798,-0.11406309,0.07540071,-0.044401724,0.07728421,-0.059597835,0.011951518,-0.018350083,0.034568783,-0.047094528,0.10992332,0.10063607,0.11252555,0.03815887,-0.15792152,-0.07220594,0.06989949,-0.09312656,0.07001114,0.017518949,0.022547193,-0.10695079,0.17196885,0.164839,0.16628785,-0.003499242,-0.06506576,-0.04472337,0.03070832,-0.008859478,-0.07795607,-0.17362599,0.030972622,0.08708685,0.17524365,0.07862697,0.14986458,-0.1188288,-0.049518857,-0.13894626,-0.039869506,0.10863877,-0.12031661,-0.001917239,-0.15876572,0.14233418,0.02139294,0.025098322,0.019752648,-0.09142623,-0.16185336,-0.03891804,-0.15885496,-0.106693946},
{0.11804843,0.045130022,0.06471339,-0.15577741,0.12435088,0.15086171,-0.15515104,0.026140003,-0.1625004,0.07647375,0.035233565,0.13690701,0.04074953,0.15220329,-0.036965314,0.13014051,-0.16488911,-0.17601138,-0.122937694,-0.1442274,-0.0054114657,0.08812758,-0.041015815,-0.00220487,-0.1260709,-0.10968224,-0.0061339256,-0.00038928937,-0.10487961,-0.08094426,-0.121631674,-0.13109377,0.007236656,-0.103941694,-0.086509906,-0.1442216,-0.11690372,0.025963197,0.034329344,0.12472765,-0.047382012,0.03284213,-0.07806751,-0.11647895,0.019473277,0.10463298,0.019084092,0.06674369,0.048263937,0.015029398,-0.103605025,-0.0021644724,0.028286625,-0.1398915,-0.0015522052,-0.15395454,0.120004654,-0.021139827,0.05133288,-0.14500657,0.06974707,-0.15229574,-0.07874639,0.058160648},
{-0.13488656,-0.12013567,0.08044352,-0.05811654,0.14333157,-0.09143038,0.10024594,-0.091077186,-0.08681699,-0.08819533,0.020289619,-0.14312045,-0.02868211,-0.046694387,-0.13578723,0.028870843,-0.020229792,-0.021853479,0.060776934,0.09106794,-0.078956805,-0.092987135,-0.008146079,0.025049578,0.01044932,-0.037246622,-0.12419239,0.076466225,-0.05464794,0.1301455,0.123175554,0.11616658,-0.043549664,-0.0060973843,0.104143046,-0.015650664,0.047205124,-0.17667983,0.114148416,0.058359098,0.15650132,0.01948,-0.051993214,-0.060171664,0.1127587,-0.047222275,-0.1170172,0.08836508,-0.1289605,0.072424255,0.02146756,-0.13876891,0.16016246,-0.12076811,0.008987795,-0.069949225,-0.16235887,0.12616722,-0.1359781,0.15144658,-0.05453463,-0.07818392,-0.025120175,-0.024271568},
{-0.09352936,-0.09838393,0.1559448,-0.12441817,-0.12362575,-0.10131607,0.13545337,-0.113081425,0.025643323,-0.15307221,-0.0043744845,-0.025270155,0.0012563133,0.122723505,-0.10914474,0.080736585,-0.0093451785,-0.0424396,0.11416426,0.15188573,0.011718636,-0.04383504,0.12890176,0.11782246,-0.014194742,0.16658755,-0.083148144,0.10349601,0.00079196034,0.13962892,0.16511461,-0.15569934,0.16654249,0.17617068,0.13059743,-0.004661947,0.15426716,0.10065915,0.14235471,-0.098668024,-0.16546299,0.012519279,-0.15672344,-0.17488152,-0.14507292,-0.101848155,-0.09963991,0.054651607,-0.11769651,0.1248389,0.16987167,-0.0070618307,-0.124527454,0.10997704,-0.06567307,0.0926641,0.0077483817,0.1297674,0.14448515,-0.1186501,-0.05232,-0.11401938,-0.029034035,0.111106955},
{0.021188527,0.11084164,0.05504566,0.06356891,-0.08150117,0.0027658027,0.13419615,-0.089529596,-0.102177575,-0.0018986734,-0.054950174,-0.0125341145,0.07520972,-0.0057534873,-0.09157648,-0.049404155,-0.12436595,0.0026665046,0.1500069,-0.10194913,0.13767573,-0.035365105,0.048203412,0.026681632,0.16897333,-0.021597289,0.143364,-0.1520465,0.1064559,-0.17595002,-0.026393494,-0.13197775,0.13050337,-0.11476429,-0.02193303,-0.07371353,-0.019495066,-0.15726458,0.07539058,0.11586716,-0.03338161,-0.108309664,0.1646739,-0.024588324,-0.118583314,0.14715046,-0.07887285,0.058344997,-0.12112275,0.12991738,0.1059784,-0.059680946,0.17611496,0.08550352,-0.01918904,0.09667117,0.16325213,-0.10191822,-0.018717373,0.0511424,-0.11391189,0.067701176,-0.09337025,0.1354727},
{0.14023247,0.08073762,0.026241176,-0.14709863,0.021280492,-0.041065,0.09981567,-0.08421587,0.06603682,0.06829079,-0.13723809,-0.16003662,-0.12096971,-0.0831575,-0.0069243056,-0.14026989,-0.17504874,0.073982574,-0.17424208,-0.06571568,0.11198424,-0.06725059,0.050722994,0.124535255,-0.04155616,-0.14882168,0.14721967,0.07050061,0.09982881,-0.012319671,0.13633132,0.116418384,0.117471375,-0.027694335,-0.09044182,0.10842717,-0.010430692,0.023547929,0.025235783,-0.12559237,0.0635793,0.14086817,0.020103056,-0.05458487,0.09513665,-0.018524699,-0.10460239,-0.16490774,-0.1015503,-0.03156114,0.16060238,-0.056485903,-0.115784705,0.11404659,-0.14415197,-0.15463373,0.07983586,-0.10586704,-0.10359969,0.036374036,-0.1177066,-0.12863836,0.08800776,-0.13697936},
{-0.07574092,0.13802621,-0.06435811,-0.087149926,-0.16667674,0.066913076,-0.027750222,0.033556096,-0.012051743,-0.1467595,0.028833207,0.10688166,0.111613385,-0.049337797,0.06927728,0.035248674,0.0011634848,0.06802134,0.14503993,0.16497998,-0.07163423,-0.09683729,0.00053768844,-0.016763087,0.13528863,0.13870946,-0.068882994,-0.10223146,-0.015790822,-0.030200282,0.16590469,0.104493946,0.013409441,-0.12131521,-0.029348979,0.12128704,0.082598865,-0.17538564,0.15966152,0.09203917,0.0802876,-0.10931046,0.08142204,0.0975442,0.0388324,0.0651857,0.021859314,-0.05956633,0.04914744,-0.017954893,0.1657835,-0.032674953,-0.0519458,-0.01863641,0.054437816,0.03504801,-0.069715396,-0.13745773,0.1212615,0.1220963,-0.13238522,-0.044561062,-0.066448085,0.03418143},
{-0.107644774,-0.01357923,0.12964615,-0.11229058,0.054289483,0.021487538,0.118452005,-0.020263404,-0.045807786,-0.14792734,-0.1187259,-0.05624819,0.11967802,-0.03774678,0.08487553,-0.11706978,0.15897515,-0.13526575,-0.11104982,-0.12787923,-0.03690593,0.12980683,-0.07380196,0.0015327755,-0.14908755,0.043012798,-0.037936,0.040633902,-0.05000144,-0.100758426,-0.010621722,-0.1671103,0.008081574,0.1275547,-0.11024836,-0.06857821,0.02214311,-0.15172431,-0.07295299,-0.03787303,-0.06909331,-0.07818312,0.10334504,-0.040001996,0.048927687,-0.08266725,0.0024887715,-0.113704085,-0.07618907,0.058734667,0.13812639,0.042531226,-0.00833593,-0.03492741,-0.12268328,0.021371529,0.027820228,-0.042991344,0.15482868,0.09654233,-0.10759239,0.018183013,0.018177766,0.09669933},
{-0.11285704,0.12364125,0.026106622,-0.10866212,-0.07365613,-0.10554508,0.13839489,0.012394925,0.09480683,-0.0022253324,-0.14606132,0.079416566,0.09919739,-0.16181013,-0.08587663,0.021903211,0.15931553,-0.0019375328,-0.014433799,0.047878124,0.07018748,0.12219324,-0.10820137,0.14851795,-0.16801114,0.030681115,-0.08761463,0.055502087,-0.0030657616,-0.12341535,-0.0656418,0.10214457,-0.1370951,0.028657202,0.021850716,-0.02464499,0.033864424,0.14221406,-0.030999955,0.054853216,-0.09650701,-0.14920205,0.15499374,0.11900344,0.10105337,-0.09119073,0.15411268,0.12208781,-0.061056662,-0.06356088,-0.09922205,-0.041149084,0.045984868,0.057920307,0.060842663,0.16224617,-0.16598372,-0.00398235,0.027161388,-0.12376405,-0.16163047,0.07622639,-0.10056493,-0.14304307},
{-0.07793679,0.08788956,0.11394468,-0.082522646,-0.07837885,0.12854296,0.09215041,-0.13546947,0.1263373,-0.03625472,-0.05675467,0.09866242,0.17664818,0.05286325,-0.029660696,-0.1379605,-0.10762543,-0.08760568,0.16137487,-0.14403148,0.0666061,0.14757805,0.17640962,-0.16689327,-0.016261645,0.030343264,-0.05771288,0.028289871,0.091111116,-0.074808,0.008921645,-0.040336516,0.017994765,0.07359183,0.07430757,-0.05417994,0.09354626,-0.09733981,0.14969411,-0.02115249,0.0356407,-0.17606041,-0.121936604,0.1543362,0.11208566,-0.03275592,0.0051613874,-0.10043689,0.12366711,-0.07193342,-0.09627299,-0.12396781,0.054326065,-0.0017308235,0.13319704,-0.00626966,0.028385522,0.14795966,-0.056376405,0.07836148,-0.08307723,-0.13596049,0.17518099,-0.051038906},
{-0.061064817,0.054669455,0.1707038,0.17377473,-0.13666019,0.11003971,-0.12714669,-0.111062065,0.17194867,0.11362167,-0.12101359,0.15587965,-0.0077192164,-0.053860363,-0.1364868,0.13327041,-0.031402856,0.11957676,0.09579618,-0.1573393,0.168334,-0.097070135,-0.013965084,0.017635148,-0.11193109,0.12333645,0.16114232,0.06254449,-0.14983064,0.07804785,0.029213624,0.03808583,0.17194258,0.12684982,0.036534257,0.0047613084,0.08034972,-0.006101009,-0.05949976,0.03494332,-0.16092911,0.042766005,0.049339462,0.036057554,0.08307552,0.005846084,-0.094296746,-0.004228994,0.029197946,-0.16275346,-0.006064489,-0.08826385,-0.10110652,-0.056910425,-0.114125825,0.075068824,0.15369864,-0.17108822,0.019185688,-0.089794636,0.14182545,0.12194929,-0.104346596,0.12843531},
{-0.041175045,-0.04091424,-0.03953663,-0.014438794,0.0826994,0.03871169,-0.061696324,-0.1530392,0.080051765,-0.17128502,0.054182112,0.04372563,-0.12482889,0.08121771,0.1336862,-0.120422736,-0.14782834,0.08753677,-0.056074064,0.00026748498,0.08584046,0.12945114,0.15687686,0.16146226,-0.051552318,-0.08049416,-0.15722576,-0.008826793,-0.054016497,0.04203128,-0.16363728,-0.11073905,0.00934522,-0.02804801,-0.10180101,0.0582669,-0.12659897,0.007874864,0.09477564,-0.053392682,0.023469198,-0.07123713,-0.15322271,-0.06058858,-0.06548636,0.10458095,0.15200426,0.15712608,-0.086156294,-0.17335474,-0.09142524,-0.14806877,0.080911875,0.0421569,-0.069214605,-0.015278801,0.15361816,0.12546782,-0.13031158,0.006487812,-0.097817205,-0.11344555,-0.037081536,-0.13061672},
{-0.10056577,0.17041071,0.12446862,0.05388656,-0.11265043,-0.16000488,0.14004576,-0.12705715,-0.0048343698,-0.028117215,0.1259183,0.13271259,0.008072048,0.11271011,0.17641503,0.15347011,-0.13805443,0.097029485,0.10435627,-0.1008931,0.056318577,-0.053604193,0.14463843,-0.08870866,0.019911898,0.1288377,0.084355205,0.11670582,-0.1704121,0.10639422,-0.011027659,-0.026834687,-0.15775292,-0.17670378,0.09659099,0.16343716,-0.06978781,0.16265954,0.0379109,0.073263004,-0.11180714,0.10819998,0.06580508,-0.14563599,-0.055997882,0.114836484,0.044456117,0.13398893,-0.047974937,-0.09308199,-0.047965683,-0.17657325,0.046784706,-0.10074741,0.01700225,0.15778813,-0.0028236913,-0.09874528,0.10895457,-0.06403693,0.13436668,-0.13546853,0.14163645,0.15794545},
{0.055250704,0.03577319,-0.035899904,-0.17548339,-0.14129794,0.08307076,0.13477036,0.1480358,0.14453381,-0.13698936,0.13738549,0.1632616,-0.051287025,-0.028105667,0.17182226,0.12487563,-0.04846976,0.16071537,-0.17193949,0.09573972,0.040856395,-0.0415322,-0.092438444,-0.03260788,-0.15333988,0.16998802,-0.15888472,0.036868926,0.025516987,-0.010542971,-0.06391668,0.039289754,0.09702656,0.008656541,0.162219,-0.16214544,0.120762415,0.05643606,0.06239809,0.08251687,-0.032300394,0.17065567,-0.090712406,-0.12368277,0.037230186,-0.02221141,-0.038143404,-0.12718701,-0.046475604,0.02207125,-0.06055503,0.08542979,-0.019678364,-0.12239874,0.00042635752,-0.01804435,0.06409006,0.014439468,0.11097575,-0.15134722,-0.14882532,0.07223491,0.09601141,0.015197963},
{0.0014356902,-0.04561081,0.15952854,0.15717481,-0.046487954,0.117461495,0.11279746,0.065676905,0.14068645,-0.025747383,-0.10957006,0.03503621,0.062404245,0.08573314,0.07224423,0.13363305,0.17162521,0.08683315,0.13820057,-0.054678034,-0.16613449,-0.047594305,0.012015771,-0.010650445,0.12147592,-0.04558228,-0.08433892,0.1548725,-0.020909704,0.091813765,0.11796232,0.13479024,0.15865001,-0.013680466,-0.053786647,0.07179599,0.027278852,0.08629028,-0.0404183,-0.16169386,0.15912344,0.057415955,0.06883853,-0.059554107,0.14548957,0.17379633,0.124062404,-0.147469,0.0825284,0.0142485425,0.15468761,0.09877346,-0.17594172,-0.039076556,0.103647,-0.103877775,-0.029338758,-0.008261499,-0.03309735,0.052902427,0.020498266,-0.103728116,-0.15934636,0.032165274},
{-0.11550028,-0.002513343,0.1391401,-0.038494233,-0.09841192,0.04921481,-0.073885635,-0.16859175,-0.08859632,-0.09031924,0.096378,-0.03601897,0.14953364,0.035319228,-0.03769534,0.1060736,-0.046118386,-0.17665152,0.17160036,0.0017417396,-0.06512765,-0.008595766,-0.04521727,0.058238555,-0.10728497,0.11156928,-0.035998065,0.038319662,0.100143105,0.034184717,-0.0050745015,0.107197076,0.14819954,0.064111196,0.09179354,-0.10645603,0.041179642,-0.07562664,-0.15056272,0.15585959,-0.14679466,0.15455462,-0.13015452,-0.11078453,-0.01339509,-0.0941098,0.14491999,0.13991474,0.12443621,0.01418233,-0.011887055,0.13358645,0.17495672,-0.12601653,-0.010598162,0.032606382,-0.04962001,0.09984711,-0.14014678,-0.11795554,-0.0146460505,0.12823598,0.1123467,0.14755322},
{-0.10095091,0.17378005,-0.06336307,-0.1622357,-0.17186193,-0.068331845,-0.03501031,-0.029504774,0.08052136,0.055635273,0.12561986,-0.04840146,-0.096755825,0.11871777,-0.004406769,0.040916685,0.010227965,0.044606052,-0.008027731,-0.09229129,0.018709386,-0.07741025,-0.0032097986,0.06681548,0.13563612,0.0975309,0.012249265,-0.09358128,0.14122167,-0.03854757,0.116307616,-0.096127495,0.0083376365,0.08251784,-0.011652065,-0.14435974,0.16979548,-0.060611825,0.12676655,-0.14255643,-0.08743382,-0.123042956,0.09353903,0.09360008,-0.05262019,0.01188204,-0.1488213,0.05087544,0.14086172,0.026473615,0.17111538,0.013994102,-0.06537427,0.0044883233,0.02857826,-0.09357049,0.0034000494,-0.14788307,0.13123049,0.17297257,-0.13349429,0.076194964,-0.09435417,-0.16513169},
{0.037432827,0.11873222,0.0063398974,0.12182732,0.071243554,0.011855845,-0.13170032,0.014187367,0.020714207,-0.14788345,0.0019830302,0.028639352,0.007402609,-0.11400482,0.06377819,-0.008615827,0.16630526,-0.1213016,0.02909376,0.07264372,-0.122976914,0.024175601,0.11650658,0.040046923,0.057784278,0.16554831,-0.028708156,0.11352574,-0.15114996,-0.010334492,0.15724045,-0.11595445,0.03320984,-0.08790606,0.07125395,0.13613723,0.10942489,0.12859191,0.14554739,-0.07890297,-0.13600247,0.093122594,0.12659119,-0.057072964,0.09766544,-0.110792875,-0.14579758,-0.13553138,-0.120271295,-0.032647874,-0.13707332,-0.07271124,-0.09422566,0.027820481,-0.048864298,0.044204015,-0.10297252,-0.12344904,-0.1446164,0.07124322,0.0042992737,-0.08580264,-0.021698946,0.15081562},
{-0.0025253126,-0.013100252,-0.07719977,-0.04779933,-0.06725748,-0.06791043,-0.10074521,0.09443846,-0.07639795,-0.13906336,0.074580066,0.063616835,0.17193942,-0.015520197,-0.15323164,-0.0028217526,0.03150289,0.023606913,-0.04148057,0.16378765,-0.15488602,-0.11393943,0.097342424,0.06973392,-0.03315256,-0.04114293,-0.08080712,0.009576986,-0.07823469,-0.16077724,-0.05540098,-0.010757519,0.028607868,-0.06963171,-0.12607373,-0.052666258,0.07054109,0.06480596,-0.1403783,0.069591716,0.105364256,0.09608379,0.09717337,-0.0064709107,0.11719302,0.028938763,-0.11628416,0.15285206,-0.018885223,-0.17465022,-0.17437497,-0.106320694,0.17504835,0.17309338,0.05830597,0.12288004,0.07117393,0.0040543373,-0.0928294,-0.061147407,0.14724687,-0.038805425,0.07220474,-0.15780461},
{0.1251133,0.17330578,-0.07149684,0.16053656,0.12382598,0.16642715,0.13569976,0.16395253,-0.042098694,-0.10031915,0.100027554,-0.16676794,-0.14112033,-0.058907278,0.0109737115,-0.070307896,0.14260544,0.0018895274,-0.11190899,-0.026574789,0.119285904,0.07270613,-0.1004073,-0.07584715,-0.15470599,-0.105158344,-0.07884879,0.17084403,-0.028418545,-0.004059711,0.03805188,0.0554799,-0.07245231,0.11143859,-0.15094972,-0.099127404,0.1691589,0.04433216,-0.08273391,0.16293539,0.14601086,-0.07075516,-0.14843793,0.0073557207,-0.0032814692,0.16111861,-0.15202098,-0.12762035,0.04149515,0.15785387,0.025275402,0.08804679,-0.08958304,0.050946858,0.053410023,-0.13749543,0.08666555,0.089147456,0.10544956,-0.103518434,-0.079869285,-0.08081135,0.011407634,0.08396607},
{-0.026798652,0.07762891,-0.035791524,-0.12007241,0.12443615,0.1706984,-0.14509457,0.042687275,-0.041742764,-0.15482758,0.13526028,0.13245103,-0.03050515,0.15489742,-0.1436938,-0.16249251,0.117466554,0.17533086,-0.07995834,-0.10910843,0.060122795,-0.14824897,-0.087471,0.07437151,0.029258426,-0.06561967,-0.10752177,-0.019549858,-0.0017627919,-0.058073908,-0.01512191,0.09692641,-0.02579366,0.050324306,-0.005018573,0.048493467,-0.1554993,-0.13330942,0.0074968706,0.057480715,-0.11431753,-0.012547117,0.1105481,-0.1527488,-0.05227478,-0.14622724,-0.05303747,0.15303165,-0.06908808,-0.12934926,0.035228442,-0.10683339,0.118098274,-0.0010345576,-0.14233279,-0.12861195,-0.047921874,-0.08504772,-0.08785538,-0.16293468,0.16234702,-0.016785277,0.1360411,-0.0077690547},
{-0.1432071,-0.09411892,-0.0012052102,-0.16412523,-0.11274298,-0.020600557,-0.043685988,0.12452765,-0.12370365,0.11159341,0.094588466,0.027876474,0.17166062,-0.15867342,-0.17674616,0.16112742,0.16576543,-0.12077782,-0.011739646,-0.17241451,-0.14265275,-0.06408567,-0.12558271,-0.056052737,-0.09875776,-0.120269716,-0.123391114,0.17490543,-0.040352467,-0.059159253,-0.077039294,-0.1761585,0.14421557,0.040495556,-0.14895019,-0.03678404,0.027433045,-0.14108543,0.08758916,-0.09864482,0.111539,-0.10607875,-0.11216958,0.14740607,-0.1761156,0.041584797,0.06471172,0.12682424,0.116235234,-0.0020700635,-0.07133455,0.13210748,0.10787062,-0.12847745,0.09384367,0.0024107364,-0.040221244,0.054788627,0.033667933,-0.089126885,-0.018594747,-0.0004261257,-0.06666394,0.13872555},
{-0.13074625,-0.16087899,-0.061623137,-0.13280416,-0.103055954,-0.11893491,0.037524182,-0.06290495,-0.053944424,-0.025298666,0.07545626,-0.16467279,0.12352046,-0.09936145,-0.005908503,0.009159227,0.030315448,-0.17319895,-0.14462356,0.1693986,0.010492058,-0.12347069,-0.15009019,0.11107524,0.15278155,0.0060646576,-0.110135674,-0.10319548,-0.111147605,-0.07100195,-0.09806345,-0.014445832,0.018035289,0.07870751,0.06368011,-0.16180742,0.046157163,0.035692226,-0.025021508,0.031108925,0.113236144,0.017026,-0.16534032,-0.06756327,0.010860653,-0.16246305,-0.16125806,0.12597126,-0.019653033,0.070238605,-0.08946081,-0.095877334,-0.11506155,-0.07105503,-0.03622749,-0.010340034,-0.123185545,-0.046716873,0.14530672,-0.11532918,-0.05589688,-0.0042952485,-0.12345733,-0.0022322235},
{-0.051888376,0.102731764,-0.1668769,0.07657583,-0.06274812,0.10398934,-0.10606819,-0.0057760146,0.05948665,-0.09821474,-0.06709544,0.05662313,0.051307738,0.019956322,-0.056277063,0.08314146,-0.14295618,-0.047390148,-0.14287344,0.07450726,0.10410781,0.1192481,0.11340134,-0.051881444,-0.14871359,0.17043777,0.16951641,0.0888448,-0.06830632,-0.03864944,0.0040906044,0.006251326,0.16660948,0.08219974,0.16548663,-0.09220799,-0.030738244,-0.13266021,-0.07750392,-0.10608751,-0.15188506,-0.16887964,0.11507122,-0.14308885,0.05418894,-0.039537072,-0.17277482,-0.033915672,0.018863644,0.045317978,0.050349258,-0.16491024,-0.14256302,-0.028818645,0.1582966,-0.05501776,0.022603165,-0.16484794,-0.022347419,0.01900907,0.087262414,-0.11552013,0.011216751,-0.17350502},
{-0.039151978,0.16578697,-0.106919385,-0.01982495,0.10354783,0.09022367,0.041206762,-0.10671415,0.12977487,0.123872474,-0.09855971,0.1121849,-0.07624398,0.15693098,-0.11198101,0.0064882124,-0.15207449,0.02848657,0.019400742,0.073006324,0.10183661,0.12145413,-0.109233566,-0.15052694,-0.0466962,0.17149758,-0.083292075,-0.13187626,-0.004552534,-0.13051027,0.053709373,-0.08255798,-0.11739157,-0.1277309,-0.034668796,-0.074679434,-0.083012894,0.123942755,0.13756491,0.08316593,0.06032124,-0.10555031,0.030103913,-0.0027953053,-0.12978247,-0.08308225,-0.1522196,0.015363685,-0.1511315,-0.076780386,0.008856043,-0.12730725,-0.09610278,-0.1272876,-0.17542806,0.1479704,0.07030718,0.020177277,-0.039987117,0.042313896,0.13819288,-0.1474228,0.060818385,0.022862116}};

static weight_t fc3_weight[64][32] = {{-0.09670533,-0.05168456,0.10474934,-0.089944854,0.017680362,0.021848738,-0.11232841,-0.017617494,-0.107757956,0.06829032,0.00048035383,-0.088778436,0.053293437,-0.09702234,0.053282216,-0.051594898,-0.07712066,0.048203215,-0.046881735,-0.008112907,0.060054958,0.05158229,-0.11490716,-0.061717108,0.11603527,-0.11499281,-0.03222595,0.042552397,-0.056732193,0.040104643,0.0023621023,-0.009983242},
{-0.115600735,0.10268068,0.011254787,0.056573883,-0.06902166,-0.099153355,0.122708544,0.06102541,-0.04421626,-0.040398434,-0.07746005,-0.0753641,-0.002694711,-0.08706103,-0.049489215,-0.11636007,0.08712262,-0.057603076,0.11696969,-0.013155356,-0.030410364,-0.10024263,0.051226497,0.029522449,-0.11804004,-0.056054324,-0.05878903,0.068267986,-0.0073307455,-0.032786503,-0.06781958,-0.03332059},
{0.11136438,-0.012391016,-0.09814699,-0.08967097,0.031580433,-0.04840815,0.03189999,0.07284704,0.008594006,0.07766838,-0.09038523,-0.1205371,0.028280452,-0.10390197,0.12019448,0.06484321,-0.043630004,0.0593227,-0.06541605,-0.05352281,-0.027932465,-0.10012095,-0.08983506,-0.028539613,-0.07927853,-0.057361647,-0.11733252,-0.023140356,0.031108737,-0.07213202,-0.032281935,0.09644829},
{0.09714329,0.077746615,-0.09463747,-0.040435776,-0.12197219,0.05906275,0.08576846,-0.03831902,-0.011949822,-0.11615887,0.058296233,0.09598155,-0.11150625,-0.07065803,0.09019731,0.06798975,-0.11551948,0.03338155,0.12400459,-0.082007155,-0.013080731,-0.010202572,-0.048210576,0.110022545,0.10500753,0.121182516,0.08082646,0.11374442,-0.0948865,-0.09033346,-0.07727581,0.07952991},
{0.114340216,-0.09218781,0.079476625,-0.10014075,-0.08009061,-0.08337942,0.020554364,0.06489025,-0.04833719,0.0012809485,-0.061371982,0.1118017,-0.05084747,0.007905826,0.03527057,0.106711745,-0.0741936,-0.10884476,0.10367371,0.0160985,-0.049196243,0.07318808,-0.02928634,-0.088175535,-0.034461677,-0.06253451,0.0739494,-0.05865684,0.016832069,0.008167699,0.1166192,0.04436782},
{0.046711564,0.017443195,0.04370071,-0.119515,-0.056768477,-0.057100475,0.00644058,0.038577095,0.037038565,0.10564454,0.08650185,-0.103003606,-0.0020290613,0.01456435,0.0650695,-0.07543561,0.043393344,-0.06002964,-0.07427797,0.0073923618,-0.08570209,-0.070231855,-0.068789706,0.016671598,0.021628395,-0.0032323897,0.014708966,0.054903597,0.06748147,-0.09637295,0.10254091,-0.11985473},
{0.055760756,0.090613365,0.023980945,-0.06773971,0.07860102,-0.01648894,-0.057093203,-0.079883575,-0.08483121,0.028200373,-0.058433563,-0.070442274,0.10198788,-0.05716209,-0.017148986,-0.033570185,0.055785224,0.020541802,0.055428997,-0.11026171,-0.014029503,-0.018786669,-0.020598456,-0.045998678,0.012446746,-0.035742477,-0.081223264,0.08481537,0.0499267,-0.12008719,0.06787366,0.051434457},
{0.060818195,0.006934002,-0.062367857,0.0041856766,0.03275031,-0.097703874,0.0499053,-0.025195599,0.052346602,-0.10159792,0.104519695,0.060618892,-0.09183419,0.07487476,-0.016095057,0.06586392,0.025982648,0.0039428174,-0.11348368,0.10858199,-0.044721365,-0.0566196,0.0867894,0.06786527,0.102546826,-0.0983952,0.11203936,-0.07548499,0.10471971,0.08986589,-0.033062235,0.010384381},
{0.09203443,-0.043799564,-0.10236579,0.06733243,-0.08829838,-0.08052899,0.08017126,0.075819194,-0.08435774,0.022494376,0.004133448,-0.03342308,0.028541043,-0.047318116,-0.016838804,-0.069837615,0.034647703,0.023354873,0.012773141,0.056601137,-0.039501324,0.07731514,0.064563304,0.09486961,0.0016881675,0.035483822,-0.044624552,-0.0015841722,-0.06318891,-0.04655619,-0.06377883,-0.12367557},
{0.019544125,-0.051156208,0.10753259,0.048904017,0.01808089,-0.04052502,-0.0072826594,0.04861605,0.10079013,0.077044755,-0.072739124,0.12172295,0.015480503,-0.011182398,-0.057411075,0.10911588,-0.04205461,-0.0071326047,-0.081774205,0.07686034,-0.054644197,-0.06121652,-0.08417578,0.08507742,-0.037852928,-0.09200217,-0.086205155,0.09682074,-0.124436006,-0.10782391,0.12252283,-0.1224646},
{0.012897596,0.085329235,-0.117460445,0.04990694,0.12149508,-0.014670536,-0.0644065,0.017392546,0.100283995,-0.009819925,-0.0056425333,-0.063742936,-0.054181635,0.06561707,-0.1050507,0.0025655925,-0.0044424087,-0.02849567,-0.08119123,0.03688574,0.057882562,-0.017955974,0.08135159,0.040275007,-0.04664716,0.04757698,-0.09160946,-0.099447116,-0.04890065,-0.12075117,-0.078012034,0.018332422},
{0.09115964,0.049308747,-0.062261015,0.10593955,-0.120747656,-0.026876003,0.100165814,-0.01533778,0.12389882,0.07360475,-0.042909756,-0.04869567,0.054027498,0.11484696,-0.016493052,0.021976665,0.03261453,-0.018871278,0.036885336,-0.033527985,-0.020314291,0.058160365,0.02549301,-0.11520046,-0.04022087,-0.050719336,0.017629474,-0.06474523,-0.07083298,0.026199952,-0.10863392,-0.023556247},
{0.056213945,0.008382082,0.04885073,-0.00527671,0.1090989,0.0070587248,-0.010962859,-0.088030264,-0.12254089,-0.105705574,0.022356033,-0.102663085,0.11019629,0.10615435,-0.037873328,0.04526283,-0.016200557,0.060171396,0.053587258,0.042653933,0.09628621,-0.051994517,0.014839873,0.01690635,-0.08731893,0.055219814,-0.07203022,-0.12313557,0.07150859,-0.08186187,0.064466655,0.0955684},
{-0.07593988,0.073877186,0.1080358,0.122315586,0.097453564,-0.1145308,-0.08211002,-0.045187205,-0.045851678,0.085299075,0.052510187,-0.038812026,0.103731185,-0.11750604,0.102116466,0.07485385,0.09900285,-0.049924806,-0.03170152,0.058000192,0.036634326,0.11978793,0.010810852,-0.07050648,0.043952584,0.082164705,-0.017951742,0.08701639,0.038196236,-0.037655413,0.089028746,0.00876148},
{0.084068224,-0.06503916,-0.04322478,-0.10905385,0.0068704635,-0.020221978,0.07105371,0.0810398,-0.025051221,-0.12186919,-0.114468604,0.084738255,-0.028460562,-0.087615624,0.11418356,0.03229645,0.10884762,-0.04161875,-0.015578657,0.049085617,-0.041603222,-0.06728168,-0.061804757,0.038997903,-0.0077791214,0.09608047,-0.12145193,0.08440396,-0.11902855,-0.0791775,0.091575846,-0.0996699},
{0.1206841,-0.094916806,-0.12134315,-0.05853218,-0.06346165,-0.109771416,0.12284942,-0.0067721754,-0.115458354,0.054687902,0.019046798,-0.01993902,-0.0057135373,0.021336153,-0.11148003,-0.073381096,0.11115995,0.11383608,0.044457212,-0.040517256,0.124375805,-0.04287207,-0.10365106,0.017503932,-0.079138026,0.11759238,-0.032779142,0.020908743,-0.08821392,-0.058660775,0.025258213,-0.020363852},
{-0.047386378,-0.028216556,0.029084176,-0.10047077,0.056854814,0.06573717,0.11776891,-0.074927256,0.056160137,-0.10720517,0.066394255,-0.11475006,-0.005205989,-0.001387924,-0.099152625,0.11209197,0.112631306,0.116304606,-0.119709715,-0.06538102,-0.03905432,0.00849618,0.028652504,-0.10524306,-0.03386572,-0.02674295,-0.11704819,0.022270232,-0.112501144,0.06847705,-0.010548174,0.06795472},
{-0.11872521,0.09157072,-0.0028172582,-0.08613947,0.05918257,0.11380966,0.10275623,0.016594008,-0.050683454,-0.03809546,-0.05653663,0.06903921,0.07322943,0.09540887,-0.06144999,-0.05525981,-0.12128422,0.09129451,0.004900843,-0.0045398474,-0.10541618,-0.05881095,0.10816796,-0.08905809,-0.026320115,-0.12390442,-0.08923626,-0.1204218,0.040941015,0.124967724,-0.124320745,0.029400349},
{-0.021827653,-0.12089744,-0.0190766,-0.09300886,-0.048620835,-0.09873338,0.113392726,-0.10303858,-0.0022977293,-0.011800587,0.0023954958,-0.06979276,-0.067472234,0.068486884,-0.122076154,0.015532747,-0.03915879,0.10752396,-0.12085515,0.098757416,0.08399896,-0.12256111,-0.102630034,-0.0631239,0.0418521,-0.040680587,-0.10195872,0.05662091,0.031459406,0.065539435,-0.025993004,0.1119964},
{-0.081635326,-0.06207347,-0.111245185,-0.11842506,-0.070793435,-0.090016246,-0.123762056,-0.015431061,0.059828386,-0.018918976,0.067010626,0.037112474,0.031120852,-0.09113179,-0.009111568,-0.12435706,0.082576975,-0.082122296,-0.04175456,-0.06821351,-0.07119967,-0.094775215,0.11119193,-0.110619724,-0.08598338,-0.120608196,-0.07948138,-0.060174495,0.009452462,0.007890925,0.06018983,0.093012124},
{0.124071866,0.03031239,0.08769277,0.11743717,-0.08259399,0.12120941,0.042926013,-0.005119294,-0.09763259,-0.013933063,-0.0971356,0.122008726,0.07188998,0.11546637,0.032824486,-0.05351025,0.081857294,-0.033945784,0.108637646,-0.050281256,0.085356966,-0.112578064,0.065111056,-0.048580036,0.12111461,0.020755604,0.10091081,0.06703696,-0.035384104,0.011195704,-0.05305268,0.039494917},
{-0.026480272,0.047105446,0.01818572,0.023954868,-0.04749973,0.09711048,0.10839309,-0.118177965,0.017205998,-0.0955206,0.09298445,0.05766219,0.07144143,0.037269115,-0.013278648,0.09105271,0.012125656,-0.09167576,-0.044608712,-0.06182289,0.095797166,0.111862496,0.08216566,-0.04725781,-0.11530176,-0.112903416,-0.038939133,-0.080386326,0.10917929,-0.09736565,-0.044824436,0.11475508},
{-0.06371474,0.0625574,0.036179215,0.062913045,0.026037067,0.057495832,-0.08099438,-0.084052086,-0.05478339,-0.089444175,-0.10470207,0.10424888,-0.05028221,0.06393662,0.030300334,0.014982879,0.038714036,-0.05392489,-0.055103794,-0.10450487,-0.040078476,0.008455038,0.076337844,0.0701374,0.12150553,-0.02035661,-0.0839265,-0.08476268,0.09584688,-0.037019297,0.06613165,-0.07565771},
{0.0798796,0.03783162,0.07512504,-0.040498734,0.05363451,-0.07896072,0.03313826,-0.08470547,0.08771068,0.07891026,-0.037827834,-0.09367141,0.07139453,-0.023009568,-0.021112114,0.011289626,0.016712487,0.06522244,-0.116882,0.048211366,-0.04944125,-0.061622128,0.0944594,0.059883967,0.0010636151,0.102968454,0.11905825,0.08779381,-0.11296661,0.0703246,-0.040298566,0.010285974},
{0.04787709,-0.11030945,0.10862519,0.028532714,-0.0024998486,0.03914602,-0.039518446,-0.086914495,0.109302446,0.029836267,0.03948717,-0.09410131,-0.10620238,0.09130259,-0.12100561,-0.047996476,0.019159332,0.11673799,0.1213624,-0.01797536,0.04376927,0.04683444,0.015993714,-0.09381555,0.04741445,-0.0043676943,0.010783583,0.03534171,-0.07885754,-0.08493395,0.0045697093,-0.04168962},
{0.036817446,-0.040686354,-0.031645387,-0.06702006,0.1079683,-0.0039684325,-0.009047076,0.10193208,-0.029321373,0.013044581,-0.020736039,-0.12178901,-0.03855616,-0.08513042,-0.07067262,-0.10158524,-0.04336357,-0.11887118,0.044809833,0.012473211,0.062496528,0.006428227,-0.060127646,-0.016936496,0.042310715,0.0021412969,-0.10217604,-0.03632301,0.033333093,0.06849031,-0.12084474,-0.030837834},
{0.11240165,0.076866075,0.01099661,-0.123785734,0.03585753,0.09411234,0.057949618,0.048669204,-0.08055197,-0.021698192,-0.12158035,0.0836571,0.10075176,0.055164695,-0.121187344,0.09368943,-0.01186876,0.08636591,-0.09649813,0.12191495,0.09754607,-0.061160028,-0.07213029,0.029711798,-0.10719891,0.1159742,-0.09713559,-0.08077443,-0.085138395,-0.07353863,-0.022850543,0.016867295},
{-0.123384744,0.021531314,-0.0788838,0.01138933,0.036642984,0.077764004,0.009260833,-0.08841047,0.07312976,0.03245671,-0.085194096,-0.022728503,-0.05807346,0.12385045,-0.07100843,-0.08539204,0.063648,-0.049867943,-0.029206783,0.019835949,0.03200449,0.08186588,-0.101530835,-0.031893894,-0.1123651,-0.061961263,0.0135534555,-0.10953881,0.018682078,-0.1139095,0.037474036,0.08542426},
{0.06044069,0.068602666,-0.09436032,0.07664323,-0.061999694,-0.01414454,-0.044732153,-0.053283334,-0.088944614,0.027240723,-0.006463915,0.047949165,0.00465101,0.036368534,-0.07286878,0.090417564,0.117958054,0.09989041,0.10082184,0.0974157,0.009600624,-0.08127488,0.0058790892,0.030191168,0.019772083,-0.11588706,-0.08819705,0.08801873,0.027184546,0.043821305,0.06767964,-0.024787053},
{-0.058630854,0.09366986,-0.06301214,-0.01987189,-0.03649415,0.048728168,-0.02354981,0.091829106,0.11864826,-0.026951551,-0.046570435,-0.0806849,0.11813235,-0.043555632,0.091333866,-0.07171495,-0.02906105,0.02658552,-0.12014961,0.020184353,0.10940114,-0.08755343,0.01633577,-0.011026964,-0.028080061,0.066321135,0.051272213,-0.04262978,-0.091473535,0.11756581,0.02266176,0.049580663},
{0.042114377,0.071484864,0.018689767,0.039509833,0.083372146,-0.10925135,0.047360837,0.10912962,0.09984882,0.009057924,-0.022156835,0.009261891,0.015229493,0.00412187,-0.04342322,0.10250425,0.08283086,-0.07918449,0.011159286,-0.013300076,0.028904676,0.08848865,0.024151728,-0.11049168,-0.055977196,0.084965065,-0.10659659,0.02706407,0.0865393,0.116710216,0.053539053,0.09673867},
{-0.044896618,-0.051948115,-0.07913017,0.052628934,0.06394093,0.021502137,-0.06323944,0.012218684,0.053606883,0.0097211,0.083427206,0.115542024,-0.00076282024,0.090734154,-0.025366187,0.004647821,0.120645225,0.08229318,-0.09213866,0.07616234,-0.101394,0.061944574,-0.08169457,0.103855014,-0.05431077,-0.010478273,-0.111931905,0.07441057,-0.08164056,-0.08424392,0.098473534,0.017364532},
{0.11418952,-0.05991727,0.070886075,0.09093419,-0.0147091,-0.076137856,0.08308123,0.0016681701,-0.05889228,0.11014788,-0.055072054,0.005262673,0.030324295,-0.07256979,-0.09685877,-0.07989332,0.030366778,-0.07747808,-0.094280526,0.038199097,-0.032784015,0.05865471,0.08667871,-0.09007029,-0.08350669,-0.09884919,0.070584536,-0.030879319,-0.078039974,-0.10544224,0.066529214,-0.016040295},
{-0.023995847,-0.021872535,0.04359971,-0.118124396,-0.08388625,0.09925015,-0.11610021,-0.09515397,0.092881575,-0.11426215,0.011757597,0.10548678,-0.08898252,-0.06239915,-0.041184112,0.122898534,0.10263291,-0.05182396,-0.026792005,-0.014582992,-0.0073316097,0.04158862,-0.06809299,-0.055437654,0.053638145,0.026936412,-0.0033759773,-0.05873865,-0.020647928,0.08351344,0.060788408,-0.09201446},
{0.012121052,-0.0038432032,-0.041042253,-0.051647082,-0.117099285,-0.09075314,-0.08535573,0.07406211,0.09470354,-0.08215131,-0.10779846,-0.08509,-0.123233214,0.019959077,0.016800702,0.100682124,0.06516066,-0.06309217,0.049289614,0.0041957647,0.042521402,-0.05250913,-0.10958491,0.013350457,-0.101385534,0.038273618,0.039815813,-0.06967446,-0.05610384,-0.10380617,0.123270765,-0.06950259},
{-0.098289594,-0.0108784735,0.061679006,0.008295953,0.0065593272,-0.10867059,0.03458664,-0.03510347,-0.02394934,-0.05613306,-0.05357273,0.01228489,0.059100762,-0.05428627,0.027433768,-0.06653933,-0.10919751,0.055589378,-0.123692796,-0.06080188,-0.11995563,-0.12042445,0.1228787,0.038199604,-0.06269127,-0.0867147,-0.034926414,0.010681793,0.010163322,0.08378211,0.03283426,0.0038156807},
{0.0758656,-0.023928374,0.093519986,0.1203462,-0.080022365,-0.106427446,0.0030757636,0.011784077,-0.07441878,0.054288074,0.100938275,-0.027747825,-0.013405815,-0.034091637,0.11332679,-0.07260083,-0.07612342,0.04637681,-0.06903173,-0.009982705,-0.12428869,0.0023437142,0.029234678,0.04057151,0.06582078,-0.056512788,-0.08762251,-0.01336503,-0.07790063,0.124678805,0.09190142,0.024878845},
{-0.12373017,0.016758904,-0.0416411,0.12074521,-0.01968497,-0.035691872,0.07105523,-0.025454119,0.0035843253,-0.08504468,0.052041322,-0.11395481,0.056715816,-0.044856027,0.051746115,-0.03499542,0.048944414,-0.065996274,-0.099941134,0.08293402,-0.07120639,0.06701231,0.10057482,0.033892497,0.052773565,0.0007070899,0.08306272,0.00080262125,0.078683555,-0.001219973,0.0748636,-0.01705578},
{0.068770885,0.07865903,0.069554776,-0.08471204,-0.02081889,0.0067963004,0.05347541,0.043250203,0.09768553,-0.06047441,-0.0021922588,-0.06375925,-0.006389424,0.06839098,-0.010659277,-0.002374962,-0.0490932,-0.074567184,-0.025868759,0.10592598,0.01599677,0.081780165,0.00811632,-0.1003958,-0.04549977,0.074050754,-0.021026626,0.0321462,-0.118156776,0.109503254,-0.10356331,-0.11257829},
{0.088338554,-0.085944176,0.077947155,-0.082377404,-0.117113665,-0.014320433,0.00610961,0.029155508,0.10892227,-0.05496125,-0.05059859,-0.012200639,0.090538934,-0.107586324,0.09230547,0.08625509,-0.038200065,0.020815477,-0.058185905,0.11505997,0.08480771,-0.021520019,0.114397004,-0.10173084,-0.11957723,-0.0006172359,0.09357022,-0.112048835,-0.039988726,-0.101708576,-0.08237578,-0.07415418},
{0.0994235,0.06347242,0.11721818,0.11857219,0.086474076,0.051303208,0.01907307,-0.028810844,-0.11567758,-0.010706291,-0.0959726,-0.11984904,-0.088323,-0.10722315,-0.07083526,-0.07638393,-0.03507872,0.057399035,0.067674845,-0.09120323,-0.104129076,-0.050920516,-0.0038812608,0.10561553,0.06042996,0.11822589,-0.034211382,0.063195944,0.032351255,0.09694229,0.08876072,0.073208064},
{0.076175764,-0.1236127,-0.09174964,-0.00928396,-0.023171216,-0.1109644,0.09134269,-0.02005902,0.11240369,-0.116840065,0.062770635,0.08894785,-0.06407057,0.097415075,-0.012047708,0.06058003,-0.10227467,0.06041327,0.00033919513,-0.0033225417,0.051803842,-0.0032613128,-0.04971914,-0.10389899,0.10277754,0.117378145,-0.026464,-0.019728735,0.03776726,0.09681076,0.11971404,-0.006493032},
{-0.039834037,0.008458212,0.09994948,-0.07278262,-0.12306701,-0.07345717,-0.117538705,-0.0003706962,-0.0808087,0.022501543,-0.055252433,-0.07048863,-0.11062321,-0.017486095,0.025119483,0.11100806,-0.0064630806,-0.10158667,-0.01622808,0.050140813,0.0065265596,0.0979342,0.06053184,-0.037179023,-0.06025505,0.03160034,-0.028495327,-0.10779819,0.06219107,0.12262079,-0.049013704,-0.12400207},
{0.025583088,-0.11388224,6.0483813e-05,-0.06410007,-0.11409587,-0.017314836,-0.042775556,-0.099050224,0.023085654,0.09438416,-0.004212767,-0.0066427886,-0.10318464,-0.10981351,0.03544177,0.043172196,0.022366598,0.04249291,-0.109267265,0.08490996,0.11034088,-0.0064361393,0.02361232,0.0736607,0.10964063,-0.07639529,-0.07177864,-0.045245692,-0.033889025,0.032983467,0.048050106,-0.114290565},
{0.031648234,0.1206886,0.008343875,0.07267669,-0.0996068,-0.0039789677,0.0806561,-0.007417321,-0.05560966,0.078204185,-0.074834675,-0.0013433844,0.09669463,0.059750885,-0.041762948,-0.046998262,-0.020325616,-0.11287694,0.0035993159,-0.06897111,-0.06977773,0.11071105,-0.04800728,0.09509292,-0.062462628,-0.060511366,0.024433717,0.002028659,0.022997737,0.07614902,0.10245025,-0.057977095},
{-0.11942914,-0.10627772,-0.00034965575,0.07762854,-0.04901527,-0.027099267,-0.09770928,-0.09358682,-0.07043557,-0.097543225,-0.04557289,-0.12020685,-0.02673304,-0.07974337,0.014030173,0.11812098,-0.08092502,-0.024818867,-0.121217296,-0.099654436,-0.038959414,-0.0444407,-0.028119475,0.08559583,0.0866853,-0.032884896,0.03149435,0.109071866,-0.10385969,-0.07786596,-0.10118936,-0.112656206},
{0.06750524,-0.06984961,-0.08072694,0.1052032,-0.0077616423,0.057378545,0.059736118,0.09677355,-0.01946865,-0.037692174,0.0050172955,-0.05652532,-0.06291543,-0.0069788843,0.05064477,-0.04653959,-0.08589542,-0.009895131,-0.11205056,0.042433232,0.040530384,0.029370219,0.05669944,-0.04575935,0.05505596,0.010966718,-0.050064057,0.1215118,-0.0409216,0.017659262,-0.04540211,0.09371272},
{-0.100827485,0.082578614,-0.04565148,-0.025381088,0.051548377,0.064707816,0.083058655,0.06359346,0.004155442,0.06533733,-0.018911645,0.020097747,-0.03977917,0.07590869,-0.0075235516,0.020472288,0.10439217,-0.1133648,0.051096514,-0.0718949,-0.119068235,-0.08013578,0.08599223,0.049097523,-0.09980111,-0.07678445,-0.076560274,-0.0469099,0.0043584406,0.041896343,0.109174535,0.09451552},
{0.045021355,0.06612256,-0.10172498,-0.03758189,-0.00418745,-0.022458732,0.040166706,-0.013237342,-0.10144894,0.04475701,-0.008909717,-0.03579271,-0.010406226,-0.07042354,-0.040654957,-0.08654022,0.10741489,0.072861284,-0.1243348,0.12480545,0.079320595,0.005449757,-0.097582966,0.053698614,0.032245547,-0.119031325,0.098740146,-0.08520931,-0.11265996,0.015402168,-0.021541074,-0.01359193},
{0.12071261,0.09830877,-0.016256303,-0.0058564246,-0.11961064,-0.006093785,-0.08188343,0.086284146,-0.04338208,0.055744246,-0.024048448,0.07368405,-0.03795889,-0.09611559,-0.11366245,0.051220506,-0.060043648,-0.09137423,0.0058686286,-0.07820912,-0.051059768,0.09550521,-0.08613165,-0.08581592,-0.064256266,-0.037298918,-0.005632594,0.09749234,-0.06899659,0.044058472,0.041514635,0.08339813},
{-0.034742355,0.03425114,0.03111872,0.109802485,-0.09974471,-0.019509435,-0.070020676,0.011037424,0.08996883,0.052316636,0.048727915,0.035666063,-0.11885646,0.0174945,-0.07551809,-0.122547045,-0.08553131,0.023467824,0.030033693,0.061551318,0.024500877,-0.10365796,0.07897039,-0.08534743,-0.03426148,-0.09067032,0.019697934,0.10127775,0.033289313,0.047525436,0.041319013,0.022307694},
{0.017088965,-0.11237565,-0.088824004,-0.11118071,-0.06393048,0.012222722,0.028900921,0.11421898,-0.005183235,-0.030118957,0.02417101,0.0471448,0.08527824,-0.061349824,-0.12454185,0.045017555,-0.026449695,-0.06314461,-0.0075968206,-0.038503543,-0.07798405,0.10945937,0.089854,0.009310484,0.0040132254,0.041470796,-0.072822094,0.07243559,-0.109578505,0.10234481,0.027307749,-0.048545063},
{0.11580691,-0.08763945,0.048205808,0.063282266,0.09814498,-0.052408427,-0.05577348,0.025089502,-0.064730525,0.08263397,0.112332806,0.070470914,-0.007031232,-0.029226944,-0.023945615,-0.09057991,-0.072275326,0.06016901,0.0839396,-0.10274619,0.100287765,0.09462881,-0.017057195,0.11089149,-0.090137735,-0.06648466,0.0893178,-0.115522996,0.09132472,-0.0993644,0.1164113,-0.007799238},
{0.1030678,0.085582405,-0.122639045,-0.08704892,-0.0057056397,-0.019490778,0.049147338,0.058926433,0.107082546,0.1170235,0.008658811,0.021046042,-0.08999242,0.09108111,-0.09940682,-0.11838509,-0.12202512,0.0354975,-0.027251393,-0.12187563,0.0381494,0.09557676,-0.046269283,-0.041083694,0.04766254,-0.03760335,0.10301079,0.021048293,-0.060040608,0.038659707,0.10929139,-0.043312505},
{0.10426293,-0.12171887,0.06034425,-0.013402954,-0.11550596,-0.091732234,0.03588824,0.019114971,-0.116876945,0.046229973,-0.11246058,-0.109861016,0.03575091,0.02626662,-0.056167603,-0.047811642,-0.091643155,0.05797714,0.08690758,0.05429113,0.0155207515,-0.05099076,0.043075994,0.038962916,0.08785184,0.053142995,0.027050644,0.02826798,-0.049606323,-0.09052409,-0.10404155,-0.040338323},
{-0.086483404,0.11257589,-0.122721925,0.10532501,-0.052340105,0.10454504,0.022635758,-0.070804745,-0.03262469,-0.020605028,-0.0063659847,0.05447355,-0.039146483,0.03576304,0.09837946,0.091788486,0.107194066,-0.012696892,-0.07095918,-0.03811951,-0.060558468,0.08569917,0.10119514,0.09289779,-0.026480839,0.025951058,0.11096142,0.037436083,0.07395229,0.028053835,0.032706007,0.077146664},
{0.024624243,-0.021164015,-0.003966853,-0.04461649,-0.09117365,0.08545193,0.113165155,-0.117251575,0.103470206,0.054351524,0.101940915,-0.035040036,-0.03375511,-0.112872824,-0.11721781,0.057980776,-0.03122434,-0.056033507,-0.09915666,-0.080439255,-0.09083632,0.018190235,-0.08191608,0.071419835,0.05732861,0.0013826191,0.072780445,-0.08618675,-0.03607993,0.087608725,0.03482695,-0.005100459},
{-0.10447526,0.022842452,0.09207335,-0.05156462,0.017117172,-0.08493191,-0.12055126,-0.049678966,0.012294099,0.08673191,-0.048397467,0.025668427,-0.099321246,-0.077279225,0.08314434,-0.10280706,0.09487635,-0.048460826,-0.082280025,0.12335722,0.009913951,-0.07866128,0.029775023,0.049701616,-0.11001898,0.07112248,0.100744486,0.010306731,0.032822922,-0.077558205,0.0176951,0.05626835},
{0.022925913,-0.0053590387,-0.11340572,-0.0044336617,-0.010646552,0.009257302,-0.120000854,0.09780039,-0.045292333,-0.09887038,0.003825456,0.04216376,-0.12219182,-0.086537674,-0.0032400042,0.0657271,0.049546152,0.09082052,0.06824404,0.073312566,-0.08609772,0.11961906,0.069405556,-0.03823723,0.012159094,-0.08871114,-0.063333675,-0.04932359,0.10950039,-0.05280499,-0.040925607,0.06503524},
{-0.11829281,-0.03150323,-0.09851882,0.055059433,-0.0197341,-0.07347526,0.0832849,0.0639077,-0.06759021,0.034485385,0.0067284405,0.03572716,0.037392393,0.12189752,-0.06742938,-0.031794056,-0.009011015,0.029633269,0.011300743,0.08230321,-0.0052396506,-0.1246365,0.035013393,0.07243952,-0.06528869,0.032671675,-0.045305416,0.07818852,0.096015066,-0.08390422,0.051399752,0.076172575},
{0.014420226,-0.030657187,-0.060301542,0.100749895,0.09696902,-0.02520059,-0.041964322,-0.04083851,-0.031325966,-0.059655696,-0.08710213,0.09058139,-0.11155906,-0.046972767,0.116733834,-0.0591242,-0.045807853,-0.057043925,-0.015249327,-0.056161672,0.10886918,0.11065726,0.11708997,-0.11900066,0.0037306696,0.009245887,-0.02014418,-0.082193464,0.10120691,0.107864216,-0.038036674,0.007956505},
{0.06330928,0.037268013,-0.0497991,-0.11926685,-0.07562697,-0.11086184,-0.11921984,-0.077757806,-0.06918393,0.006349623,0.119002745,0.11590548,0.08108541,0.12042655,0.10413565,-0.118703395,0.08568519,-0.063169464,-0.013630271,-0.006212935,0.035161898,0.036436617,-0.116374195,0.008902416,-0.04115969,-0.119488075,-0.06310803,0.1057737,-0.108391896,-0.013691932,0.060993,0.0066827536},
{-0.11134826,-0.0219547,-0.06780054,0.09838344,0.013205409,-0.008305475,-0.041760653,0.12309262,-0.008595824,-0.0829106,-0.030118585,-0.09185369,-0.113312066,0.123109445,-0.07007642,-0.06207508,-0.031031787,-0.027734265,-0.050702706,0.027655557,-0.034390837,0.0815822,0.071698636,0.016595751,-0.06791937,0.036865845,0.064338624,0.035154417,0.11680435,-0.0469833,0.032315418,0.072512254},
{-0.019026935,0.021138757,0.10952546,-0.042683825,-0.045384735,-0.05689688,0.09510189,0.013549089,0.11661278,-0.02314265,-0.092831746,-0.05820608,-0.016010031,-0.07645856,0.004979238,0.117434025,-0.082904264,-0.047543436,0.02542235,-0.014384627,-0.045346946,0.039740175,-0.011520758,-0.028769135,-0.031175181,-0.08384049,-0.068917766,0.030308262,0.042167187,-0.013206348,0.08014336,-0.06733768}};

static weight_t fc4_weight[32][2] = {{0.16398174,0.10297569},
{-0.088402994,-0.0037197543},
{-0.124143034,0.105613865},
{0.05075393,0.1318909},
{-0.026646333,0.12551458},
{-0.12510616,0.11290555},
{-0.16503325,-0.05769362},
{0.14429918,0.0073279883},
{-0.095446974,-0.07174742},
{0.15349793,0.08914587},
{-0.12344571,-0.040954072},
{0.08907734,-0.17450342},
{-0.06735688,-0.076685935},
{0.12741715,-0.1353326},
{0.17011221,0.037479274},
{0.1494676,0.12789994},
{-0.08974836,-0.008691038},
{-0.049084555,-0.071672805},
{-0.112361245,-0.055085298},
{-0.029253326,-0.14150068},
{0.053615026,0.07927788},
{0.12138425,0.104070745},
{-0.0843896,-0.12549894},
{0.11373984,0.12671772},
{-0.03662985,0.06057819},
{0.003962204,-0.15525028},
{-0.11608493,0.10746692},
{0.041524213,-0.012107103},
{0.022219017,-0.09216279},
{0.11505716,0.08637727},
{0.12677804,-0.09244795},
{0.1441075,0.033928316}};

static bias_t fc1_bias[32] = {-0.18692699,0.17499757,0.14375389,-0.24567789,-0.19623652,-0.16484413,-0.1353328,0.03121546,-0.2472142,-0.18534172,0.11417127,-0.081878126,-0.0994806,-0.20682031,0.10132787,0.017654032,-0.09663254,-0.15309596,0.05316809,0.06802294,0.11096525,0.074295014,-0.038136333,-0.19352716,0.15915209,-0.0021430254,-0.16614681,0.21559748,0.13938695,-0.19648236,-0.12485427,-0.08507609};

static bias_t fc2_bias[64] = {0.11812206,-0.034961484,-0.16704285,-0.024947984,0.01394498,0.043600976,0.05659308,-0.023516614,-0.009255153,-0.037127305,0.06778903,0.040434126,0.07161276,-0.016147869,-0.016459651,0.12995435,0.022158684,-0.16161369,0.035739306,0.16353399,-0.034270193,0.10631757,-0.12725419,-0.027031597,0.118194744,-0.08839043,-0.045080353,0.0015068762,-0.026724285,-0.04967971,0.12196468,-0.032277994,-0.047844406,0.13253765,0.039373733,-0.08353118,0.10608212,-0.08675482,0.1761932,0.14678687,0.016859688,0.04891268,-0.07136511,-0.13664027,-0.12575458,0.05611206,0.08647602,-0.0021570125,-0.05781751,-0.057538413,-0.09782382,-0.10675588,0.11662802,-0.15258925,0.1290877,0.09758493,-0.048228532,-0.022906138,-0.05931507,-0.14857209,0.014226078,-0.13525398,0.0050661145,-0.06151678};

static bias_t fc3_bias[32] = {0.0015013963,0.034779266,-0.008761704,-0.022410035,0.061866716,0.052583024,-0.08914465,-0.030037835,-0.0750989,0.06559996,0.02006504,0.013328418,0.06061986,-0.008964181,0.08290954,-0.021040171,0.06915222,0.05492319,0.10949165,-0.018318951,0.016816258,-0.1223689,0.10421072,0.009834513,0.042075425,-0.11297165,-0.01945211,0.10484861,-0.06000288,0.03509283,0.0731633,0.06814708};

static bias_t fc4_bias[2] = {0.16979495,0.09863114};

#endif
